const model_weights_epoch_3 =

{"weights":{"0-0-1-0":0.5199630637627002,"0-0-1-1":0.958506628511723,"0-0-1-2":1.468036423837554,"0-0-1-3":1.3686134252371749,"0-0-1-4":0.46009233724303716,"0-1-1-0":0.5805636462349915,"0-1-1-1":1.4005681655330569,"0-1-1-2":0.7893460417108175,"0-1-1-3":1.0799123360563205,"0-1-1-4":1.02523080964422,"0-2-1-0":0.3099752632115197,"0-2-1-1":0.25053227324206057,"0-2-1-2":-2.9245743752205415,"0-2-1-3":0.4563392088073034,"0-2-1-4":-1.5087268305051118,"0-3-1-0":-0.1436716966486681,"0-3-1-1":-0.3891437865058785,"0-3-1-2":1.0448398266606012,"0-3-1-3":-0.8905038177974295,"0-3-1-4":-0.7331766214267372,"0-4-1-0":0.43536487230726895,"0-4-1-1":-1.8421330894142742,"0-4-1-2":0.03190846705762076,"0-4-1-3":-0.8245801571932587,"0-4-1-4":-0.6650743064456137,"1-0-2-0":-0.8607119319601357,"1-0-2-1":0.747806400170211,"1-0-2-2":-0.9336770656202156,"1-0-2-3":0.7678881030775899,"1-0-2-4":0.38169929865830265,"1-1-2-0":0.5488653174103038,"1-1-2-1":0.993142391779978,"1-1-2-2":0.7413874571571075,"1-1-2-3":0.8513502356218813,"1-1-2-4":-0.5812219385818946,"1-2-2-0":-0.0015102109105927838,"1-2-2-1":-1.8922797699721339,"1-2-2-2":0.7268342499250531,"1-2-2-3":0.41957185901380784,"1-2-2-4":-0.3098691259750026,"1-3-2-0":0.15008924529510556,"1-3-2-1":1.295760528405287,"1-3-2-2":-0.022954533581600874,"1-3-2-3":-0.5706749856738287,"1-3-2-4":0.5984604186349954,"1-4-2-0":0.35930154351359656,"1-4-2-1":-0.8320948285759989,"1-4-2-2":-0.15295210140687115,"1-4-2-3":1.002944122621635,"1-4-2-4":-1.0021331554225061,"2-0-3-0":0.16635990015966304,"2-0-3-1":-0.5463193334938168,"2-0-3-2":0.07382672087064177,"2-0-3-3":0.6373350407426356,"2-0-3-4":0.18664362862140693,"2-1-3-0":-0.8585540997463043,"2-1-3-1":-0.6760681481808759,"2-1-3-2":-0.5630796832068796,"2-1-3-3":1.1455522990574019,"2-1-3-4":-1.9556003337030434,"2-2-3-0":-0.7003878129290948,"2-2-3-1":0.10673970513948937,"2-2-3-2":-0.7191899400643657,"2-2-3-3":-1.4177725794668075,"2-2-3-4":-0.5395105986732309,"2-3-3-0":0.23466106481871551,"2-3-3-1":1.0104494740036885,"2-3-3-2":-0.9873909991561265,"2-3-3-3":-0.02605217212291451,"2-3-3-4":1.1415825900147245,"2-4-3-0":0.005752294126523066,"2-4-3-1":0.044982017801250475,"2-4-3-2":-1.3876194023159516,"2-4-3-3":0.908490738909093,"2-4-3-4":-0.49432989634600544,"3-0-4-0":0.8557144938360486,"3-0-4-1":-1.7239630359876859,"3-0-4-2":-0.3570051858410459,"3-0-4-3":0.43716949269252536,"3-0-4-4":-1.4980203238325958,"3-1-4-0":-1.0042368441310743,"3-1-4-1":-1.025639303442356,"3-1-4-2":-0.8588646500742322,"3-1-4-3":-0.17158815767777652,"3-1-4-4":0.5545989120912376,"3-2-4-0":0.7039406739578555,"3-2-4-1":-0.14125994162619815,"3-2-4-2":1.586452772635529,"3-2-4-3":0.450163232009433,"3-2-4-4":-0.19835931187632913,"3-3-4-0":-0.47994761549759724,"3-3-4-1":0.04513716590605166,"3-3-4-2":-1.819166492854853,"3-3-4-3":-1.0728366538044907,"3-3-4-4":0.9982284004818269,"3-4-4-0":-1.8924137390025257,"3-4-4-1":0.4704533679476319,"3-4-4-2":-1.3205505660768184,"3-4-4-3":-1.2479650381953311,"3-4-4-4":-1.70880981141143,"4-0-5-0":0.6092225617876551,"4-0-5-1":-0.6096009718628014,"4-0-5-2":0.10200008366473926,"4-0-5-3":-0.7745733199463063,"4-0-5-4":-0.4237049490220147,"4-1-5-0":1.9706083822664202,"4-1-5-1":1.2882141732172285,"4-1-5-2":0.9983017851133279,"4-1-5-3":0.6946489731568073,"4-1-5-4":-1.1214945810129706,"4-2-5-0":-0.29981954708936354,"4-2-5-1":0.1303317747799971,"4-2-5-2":0.5168405903218384,"4-2-5-3":-1.1040332831954254,"4-2-5-4":-0.2587985157238582,"4-3-5-0":0.3785546271774246,"4-3-5-1":0.7553945470202577,"4-3-5-2":1.617788468767627,"4-3-5-3":0.2860633286676261,"4-3-5-4":-1.5677262506198373,"4-4-5-0":-0.9715273733044434,"4-4-5-1":-0.42548750924052064,"4-4-5-2":0.15298872666581442,"4-4-5-3":-0.8207588043893133,"4-4-5-4":1.4893931758608656,"5-0-6-0":0.11411253460546085,"5-0-6-1":0.9568498213545641,"5-0-6-2":0.6968048235712437,"5-0-6-3":0.44279695231955635,"5-0-6-4":0.3180053686184427,"5-1-6-0":1.046305834244272,"5-1-6-1":-1.3362398179928567,"5-1-6-2":-0.2393725931805707,"5-1-6-3":-0.17745181672550425,"5-1-6-4":0.29587903106359825,"5-2-6-0":-0.8593453035225578,"5-2-6-1":-0.9710372546102017,"5-2-6-2":-0.488298501302758,"5-2-6-3":0.4873359570818288,"5-2-6-4":-1.6853502900212358,"5-3-6-0":-0.8949567126751741,"5-3-6-1":-1.3482198023943772,"5-3-6-2":-0.10779192159004804,"5-3-6-3":-1.330739574262022,"5-3-6-4":0.4835707442275413,"5-4-6-0":-1.4286792761386045,"5-4-6-1":-1.40375584946928,"5-4-6-2":-0.28863503052894285,"5-4-6-3":1.1726486504000404,"5-4-6-4":0.2594316930854833,"6-0-7-0":0.4510217225034439,"6-0-7-1":-0.23903274622378573,"6-0-7-2":2.3217163621753936,"6-0-7-3":-0.25664024152220266,"6-0-7-4":1.7485846005792989,"6-1-7-0":3.77985636104074,"6-1-7-1":0.11461928018449481,"6-1-7-2":0.05628465952512947,"6-1-7-3":0.6726627004605245,"6-1-7-4":-0.6912989840487221,"6-2-7-0":0.5855206220284085,"6-2-7-1":0.7644446132375683,"6-2-7-2":-0.5338438367623991,"6-2-7-3":-0.7170440447068342,"6-2-7-4":0.859434422058686,"6-3-7-0":-0.03690391698570094,"6-3-7-1":0.4006852323699344,"6-3-7-2":-0.7496924484676136,"6-3-7-3":-1.5795448562391896,"6-3-7-4":0.4166847770108758,"6-4-7-0":-0.14353200634829452,"6-4-7-1":1.0851509696109405,"6-4-7-2":0.7959817802433248,"6-4-7-3":-2.8429123783934394,"6-4-7-4":-0.13370557292413127,"7-0-8-0":-1.086230913603088,"7-0-8-1":0.5009871924529073,"7-0-8-2":0.6982942913803076,"7-0-8-3":0.6609631513668216,"7-0-8-4":-1.5195557256609395,"7-1-8-0":1.1441232141537987,"7-1-8-1":1.0037127626350226,"7-1-8-2":-0.8978708366056314,"7-1-8-3":1.195702343196687,"7-1-8-4":0.3779660650669757,"7-2-8-0":-1.2726132017162155,"7-2-8-1":0.1430909774010674,"7-2-8-2":-1.0498753042770428,"7-2-8-3":0.5553506953848942,"7-2-8-4":-1.6503195242766857,"7-3-8-0":-1.717168876525408,"7-3-8-1":0.668896208001135,"7-3-8-2":-0.24925755980685044,"7-3-8-3":-1.5476642579158875,"7-3-8-4":1.1551429113464793,"7-4-8-0":-0.5008208657745901,"7-4-8-1":-1.9582672688528913,"7-4-8-2":0.7123258621361533,"7-4-8-3":-2.031476409847251,"7-4-8-4":-0.11648310169297157,"8-0-9-0":2.181600568514766,"8-0-9-1":-1.07986963540358,"8-0-9-2":0.7330163094431585,"8-0-9-3":0.014686911359231745,"8-0-9-4":-1.4390465917186281,"8-1-9-0":-0.8580244415440906,"8-1-9-1":-0.5713824583075262,"8-1-9-2":-0.8283240684804501,"8-1-9-3":1.0342579868716895,"8-1-9-4":-1.4763280396746725,"8-2-9-0":0.4173059520925791,"8-2-9-1":-1.0904126177847655,"8-2-9-2":-0.19326601521313697,"8-2-9-3":0.9104061781971186,"8-2-9-4":-1.039036165062447,"8-3-9-0":-1.3139137865151806,"8-3-9-1":-0.2010016913513739,"8-3-9-2":1.2127652855571327,"8-3-9-3":0.24395826860659578,"8-3-9-4":-0.4161833263159243,"8-4-9-0":1.767016552624327,"8-4-9-1":1.8277718426003724,"8-4-9-2":0.08064223403651895,"8-4-9-3":-0.9785091813417408,"8-4-9-4":0.8983706648284993,"9-0-10-0":0.3989581105709176,"9-0-10-1":0.017867100054212406,"9-0-10-2":-0.6364379053453032,"9-0-10-3":1.4614985384256474,"9-0-10-4":-0.12838860090577872,"9-1-10-0":-0.15655866141043195,"9-1-10-1":1.281253437911909,"9-1-10-2":-0.21338118061388925,"9-1-10-3":-0.6885196364057121,"9-1-10-4":-0.38839768671411895,"9-2-10-0":0.09568050906121307,"9-2-10-1":0.5445696136149365,"9-2-10-2":0.060551078494777553,"9-2-10-3":1.3450388472935022,"9-2-10-4":-1.3563237708995768,"9-3-10-0":1.4022506442378762,"9-3-10-1":-0.07044435113768768,"9-3-10-2":-1.5498186049025329,"9-3-10-3":0.4064082785530951,"9-3-10-4":0.049119965441506715,"9-4-10-0":-0.9900773211684789,"9-4-10-1":-0.5475682007255672,"9-4-10-2":0.7038595190023719,"9-4-10-3":-0.46339910267289836,"9-4-10-4":0.4075616626952992,"10-0-11-0":-1.2413147177644488,"10-0-11-1":-0.7306880015104703,"10-0-11-2":1.1495445947841123,"10-1-11-0":-1.3679804200313819,"10-1-11-1":-1.1220418740587328,"10-1-11-2":1.986395049139282,"10-2-11-0":0.18863297346158464,"10-2-11-1":1.9785796666771565,"10-2-11-2":0.4253345650447982,"10-3-11-0":1.1896368004978874,"10-3-11-1":-2.3028951594045357,"10-3-11-2":1.9012122364015496,"10-4-11-0":-0.5973286144592083,"10-4-11-1":-0.6358247364722366,"10-4-11-2":-0.9097163785266872,"i-0-11-0":-6.667312357641882,"i-0-11-1":-2.34658248573923,"i-0-11-2":11.051971300514442,"i-0-Blank":-1.0637934054579186,"i-1-11-0":-10.649443000710527,"i-1-11-1":-1.0687373943740115,"i-1-11-2":10.344530540513517,"i-1-Blank":0.3821541026719623,"i-2-11-0":1.5440392568484995,"i-2-11-1":-4.767775026074345,"i-2-11-2":4.877654293433908,"i-2-Blank":0.8241981094210639,"i-3-11-0":1.9122002365814414,"i-3-11-1":-1.8498248708729146,"i-3-11-2":2.5508729540460404,"i-3-Blank":-0.2531183303809111,"11-0-Blank-0":-0.026685713754808424,"11-1-Blank-0":0.2838295906513177,"11-2-Blank-0":-1.186214528402748,"i-0-0-0":1.0331616562915076,"i-0-0-1":1.3213649257547886,"i-1-0-0":-0.8252932800556136,"i-1-0-1":-2.7028536434471993,"i-2-0-0":-0.8781068306875683,"i-2-0-1":1.0967147926056122,"i-3-0-0":1.1319800998033391,"i-3-0-1":0.5180849058857198,"0-0-11-0":0.10615753534433979,"0-0-11-1":-1.7263282873085135,"0-0-11-2":-1.159627641212794,"0-1-11-0":0.2537339147622197,"0-1-11-1":-0.04470126235661208,"0-1-11-2":-1.0000906135750947,"i-0-0-2":-2.555175374971766,"i-0-0-3":-0.054774105112780656,"i-0-0-4":0.4662988219371002,"i-1-0-2":20.14538785101142,"i-1-0-3":-7.3187922264240495,"i-1-0-4":1.0313478917584322,"i-2-0-2":11.461847891042327,"i-2-0-3":0.28373266567531985,"i-2-0-4":2.354009565300897,"i-3-0-2":2.410607089434545,"i-3-0-3":0.6956673411689863,"i-3-0-4":-0.583684839502314,"0-2-11-0":-0.5575160248580243,"0-2-11-1":-0.6067991442728186,"0-2-11-2":-2.4210341208965382,"0-3-11-0":0.3066687775519546,"0-3-11-1":-0.39490929062057034,"0-3-11-2":0.10211796246096437,"0-4-11-0":-0.3990780915836579,"0-4-11-1":-1.1454587661897386,"0-4-11-2":0.3349493345701613,"1-0-11-0":0.20373384662776012,"1-0-11-1":-0.08329720026704297,"1-0-11-2":1.1412190685840784,"1-1-11-0":0.6488923383694161,"1-1-11-1":0.5466601357404869,"1-1-11-2":0.7725036065478517,"1-2-11-0":-3.8204481301523536,"1-2-11-1":-0.9671899798545983,"1-2-11-2":10.056082378255802,"1-3-11-0":0.7437757741098526,"1-3-11-1":-0.6778962605392197,"1-3-11-2":-1.184561215899284,"1-4-11-0":0.6568772418731739,"1-4-11-1":0.8496165172464523,"1-4-11-2":-0.08618565079622284},"biases":{"1-0":0.692501639429052,"1-1":-0.23082159692680876,"1-2":-0.06205650088361594,"1-3":-1.1229919269405617,"1-4":-1.460582787980679,"2-0":0.4672414015050039,"2-1":-0.11490662263182048,"2-2":-0.026603348451624872,"2-3":0.6763047374119804,"2-4":0.25793877593222586,"3-0":0.7833267635389584,"3-1":0.5316983597399301,"3-2":-0.03694626768246996,"3-3":0.13626158707428412,"3-4":-0.07847658657546981,"4-0":0.21001589310037658,"4-1":0.03843803771340623,"4-2":-0.6461911358779734,"4-3":0.040059782753790615,"4-4":0.5538106443612754,"5-0":0.5025749425250489,"5-1":0.2965746837456482,"5-2":0.3689705662581419,"5-3":0.3766346210087601,"5-4":0.5018075663290906,"6-0":-1.4823542202305486,"6-1":-0.00799435049729372,"6-2":-1.5003578647749243,"6-3":-0.6409046817379829,"6-4":-0.4239671212054306,"7-0":-0.6630693293359963,"7-1":-0.9229534961284895,"7-2":0.655777091765016,"7-3":0.28514795654303215,"7-4":0.01723548782150046,"8-0":-0.323865068704035,"8-1":-0.32671056288947603,"8-2":0.19783336400534995,"8-3":0.4571407699061731,"8-4":0.49693011350368976,"9-0":0.04104978388180547,"9-1":-0.30053673449410634,"9-2":0.757977138637835,"9-3":0.037840255698226626,"9-4":0.5351198560522051,"10-0":0.8589167088634668,"10-1":0.4168797365698717,"10-2":-0.5650208283598724,"10-3":0.1335387278505894,"10-4":0.29788824353791177,"11-0":-1.0075677972488586,"11-1":-0.1656450612976307,"11-2":0.0649559383199436,"i-0":3.1913872783390396,"i-1":1.1871057015436892,"i-2":2.3780008120826097,"i-3":3.7914455027411034,"11-3":-0.11406281529303616,"Blank-0":-0.8607442657651841,"Blank-1":0.5196942448404379,"Blank-2":-0.017299781167136964,"0-0":-19.838681143987497,"0-1":-22.86793362339754,"0-2":-0.5584025742955447,"0-3":3.4266355956928867,"11-4":-0.2651613895281194,"0-4":23.404018697011836}};

const model_weights_epoch_6 =

{"weights":{"0-0-1-0":0.5199563420038039,"0-0-1-1":0.9584711386745912,"0-0-1-2":1.4648835742752127,"0-0-1-3":1.368804455670092,"0-0-1-4":0.4600932235983044,"0-1-1-0":0.5805537957049408,"0-1-1-1":1.400343082434111,"0-1-1-2":0.7943300813335937,"0-1-1-3":1.077993019145773,"0-1-1-4":1.0252043639653097,"0-2-1-0":0.3088263726088303,"0-2-1-1":0.2394221457276026,"0-2-1-2":-3.030030408923078,"0-2-1-3":0.3741388029438246,"0-2-1-4":-1.5105893208174361,"0-3-1-0":-0.1443617806717312,"0-3-1-1":-0.39440691342296297,"0-3-1-2":1.0677204236323472,"0-3-1-3":-0.9534076261413186,"0-3-1-4":-0.7339757084823125,"0-4-1-0":0.4353568580926115,"0-4-1-1":-1.842194019236956,"0-4-1-2":0.03350840568103455,"0-4-1-3":-0.8256112150017639,"0-4-1-4":-0.6650867824527132,"1-0-2-0":-0.8607119319601357,"1-0-2-1":0.747806400170211,"1-0-2-2":-0.9336770656202156,"1-0-2-3":0.7678881030775899,"1-0-2-4":0.38169929865830265,"1-1-2-0":0.5488653174103038,"1-1-2-1":0.993142391779978,"1-1-2-2":0.7413874571571075,"1-1-2-3":0.8513502356218813,"1-1-2-4":-0.5812219385818946,"1-2-2-0":-0.0015102109105927838,"1-2-2-1":-1.8922797699721339,"1-2-2-2":0.7268342499250531,"1-2-2-3":0.41957185901380784,"1-2-2-4":-0.3098691259750026,"1-3-2-0":0.15008924529510556,"1-3-2-1":1.295760528405287,"1-3-2-2":-0.022954533581600874,"1-3-2-3":-0.5706749856738287,"1-3-2-4":0.5984604186349954,"1-4-2-0":0.35930154351359656,"1-4-2-1":-0.8320948285759989,"1-4-2-2":-0.15295210140687115,"1-4-2-3":1.002944122621635,"1-4-2-4":-1.0021331554225061,"2-0-3-0":0.16635990015966304,"2-0-3-1":-0.5463193334938168,"2-0-3-2":0.07382672087064177,"2-0-3-3":0.6373350407426356,"2-0-3-4":0.18664362862140693,"2-1-3-0":-0.8585540997463043,"2-1-3-1":-0.6760681481808759,"2-1-3-2":-0.5630796832068796,"2-1-3-3":1.1455522990574019,"2-1-3-4":-1.9556003337030434,"2-2-3-0":-0.7003878129290948,"2-2-3-1":0.10673970513948937,"2-2-3-2":-0.7191899400643657,"2-2-3-3":-1.4177725794668075,"2-2-3-4":-0.5395105986732309,"2-3-3-0":0.23466106481871551,"2-3-3-1":1.0104494740036885,"2-3-3-2":-0.9873909991561265,"2-3-3-3":-0.02605217212291451,"2-3-3-4":1.1415825900147245,"2-4-3-0":0.005752294126523066,"2-4-3-1":0.044982017801250475,"2-4-3-2":-1.3876194023159516,"2-4-3-3":0.908490738909093,"2-4-3-4":-0.49432989634600544,"3-0-4-0":0.8557144938360486,"3-0-4-1":-1.7239630359876859,"3-0-4-2":-0.3570051858410459,"3-0-4-3":0.43716949269252536,"3-0-4-4":-1.4980203238325958,"3-1-4-0":-1.0042368441310743,"3-1-4-1":-1.025639303442356,"3-1-4-2":-0.8588646500742322,"3-1-4-3":-0.17158815767777652,"3-1-4-4":0.5545989120912376,"3-2-4-0":0.7039406739578555,"3-2-4-1":-0.14125994162619815,"3-2-4-2":1.586452772635529,"3-2-4-3":0.450163232009433,"3-2-4-4":-0.19835931187632913,"3-3-4-0":-0.47994761549759724,"3-3-4-1":0.04513716590605166,"3-3-4-2":-1.819166492854853,"3-3-4-3":-1.0728366538044907,"3-3-4-4":0.9982284004818269,"3-4-4-0":-1.8924137390025257,"3-4-4-1":0.4704533679476319,"3-4-4-2":-1.3205505660768184,"3-4-4-3":-1.2479650381953311,"3-4-4-4":-1.70880981141143,"4-0-5-0":0.6092225617876551,"4-0-5-1":-0.6096009718628014,"4-0-5-2":0.10200008366473926,"4-0-5-3":-0.7745733199463063,"4-0-5-4":-0.4237049490220147,"4-1-5-0":1.9706083822664202,"4-1-5-1":1.2882141732172285,"4-1-5-2":0.9983017851133279,"4-1-5-3":0.6946489731568073,"4-1-5-4":-1.1214945810129706,"4-2-5-0":-0.29981954708936354,"4-2-5-1":0.1303317747799971,"4-2-5-2":0.5168405903218384,"4-2-5-3":-1.1040332831954254,"4-2-5-4":-0.2587985157238582,"4-3-5-0":0.3785546271774246,"4-3-5-1":0.7553945470202577,"4-3-5-2":1.617788468767627,"4-3-5-3":0.2860633286676261,"4-3-5-4":-1.5677262506198373,"4-4-5-0":-0.9715273733044434,"4-4-5-1":-0.42548750924052064,"4-4-5-2":0.15298872666581442,"4-4-5-3":-0.8207588043893133,"4-4-5-4":1.4893931758608656,"5-0-6-0":0.11411253460546085,"5-0-6-1":0.9568498213545641,"5-0-6-2":0.6968048235712437,"5-0-6-3":0.44279695231955635,"5-0-6-4":0.3180053686184427,"5-1-6-0":1.046305834244272,"5-1-6-1":-1.3362398179928567,"5-1-6-2":-0.2393725931805707,"5-1-6-3":-0.17745181672550425,"5-1-6-4":0.29587903106359825,"5-2-6-0":-0.8593453035225578,"5-2-6-1":-0.9710372546102017,"5-2-6-2":-0.488298501302758,"5-2-6-3":0.4873359570818288,"5-2-6-4":-1.6853502900212358,"5-3-6-0":-0.8949567126751741,"5-3-6-1":-1.3482198023943772,"5-3-6-2":-0.10779192159004804,"5-3-6-3":-1.330739574262022,"5-3-6-4":0.4835707442275413,"5-4-6-0":-1.4286792761386045,"5-4-6-1":-1.40375584946928,"5-4-6-2":-0.28863503052894285,"5-4-6-3":1.1726486504000404,"5-4-6-4":0.2594316930854833,"6-0-7-0":0.4510217225034439,"6-0-7-1":-0.23903274622378573,"6-0-7-2":2.3217163621753936,"6-0-7-3":-0.25664024152220266,"6-0-7-4":1.7485846005792989,"6-1-7-0":3.77985636104074,"6-1-7-1":0.11461928018449481,"6-1-7-2":0.05628465952512947,"6-1-7-3":0.6726627004605245,"6-1-7-4":-0.6912989840487221,"6-2-7-0":0.5855206220284085,"6-2-7-1":0.7644446132375683,"6-2-7-2":-0.5338438367623991,"6-2-7-3":-0.7170440447068342,"6-2-7-4":0.859434422058686,"6-3-7-0":-0.03690391698570094,"6-3-7-1":0.4006852323699344,"6-3-7-2":-0.7496924484676136,"6-3-7-3":-1.5795448562391896,"6-3-7-4":0.4166847770108758,"6-4-7-0":-0.14353200634829452,"6-4-7-1":1.0851509696109405,"6-4-7-2":0.7959817802433248,"6-4-7-3":-2.8429123783934394,"6-4-7-4":-0.13370557292413127,"7-0-8-0":-1.086230913603088,"7-0-8-1":0.5009871924529073,"7-0-8-2":0.6982942913803076,"7-0-8-3":0.6609631513668216,"7-0-8-4":-1.5195557256609395,"7-1-8-0":1.1441232141537987,"7-1-8-1":1.0037127626350226,"7-1-8-2":-0.8978708366056314,"7-1-8-3":1.195702343196687,"7-1-8-4":0.3779660650669757,"7-2-8-0":-1.2726132017162155,"7-2-8-1":0.1430909774010674,"7-2-8-2":-1.0498753042770428,"7-2-8-3":0.5553506953848942,"7-2-8-4":-1.6503195242766857,"7-3-8-0":-1.717168876525408,"7-3-8-1":0.668896208001135,"7-3-8-2":-0.24925755980685044,"7-3-8-3":-1.5476642579158875,"7-3-8-4":1.1551429113464793,"7-4-8-0":-0.5008208657745901,"7-4-8-1":-1.9582672688528913,"7-4-8-2":0.7123258621361533,"7-4-8-3":-2.031476409847251,"7-4-8-4":-0.11648310169297157,"8-0-9-0":2.181600568514766,"8-0-9-1":-1.07986963540358,"8-0-9-2":0.7330163094431585,"8-0-9-3":0.014686911359231745,"8-0-9-4":-1.4390465917186281,"8-1-9-0":-0.8580244415440906,"8-1-9-1":-0.5713824583075262,"8-1-9-2":-0.8283240684804501,"8-1-9-3":1.0342579868716895,"8-1-9-4":-1.4763280396746725,"8-2-9-0":0.4173059520925791,"8-2-9-1":-1.0904126177847655,"8-2-9-2":-0.19326601521313697,"8-2-9-3":0.9104061781971186,"8-2-9-4":-1.039036165062447,"8-3-9-0":-1.3139137865151806,"8-3-9-1":-0.2010016913513739,"8-3-9-2":1.2127652855571327,"8-3-9-3":0.24395826860659578,"8-3-9-4":-0.4161833263159243,"8-4-9-0":1.767016552624327,"8-4-9-1":1.8277718426003724,"8-4-9-2":0.08064223403651895,"8-4-9-3":-0.9785091813417408,"8-4-9-4":0.8983706648284993,"9-0-10-0":0.3989581105709176,"9-0-10-1":0.017867100054212406,"9-0-10-2":-0.6364379053453032,"9-0-10-3":1.4614985384256474,"9-0-10-4":-0.12838860090577872,"9-1-10-0":-0.15655866141043195,"9-1-10-1":1.281253437911909,"9-1-10-2":-0.21338118061388925,"9-1-10-3":-0.6885196364057121,"9-1-10-4":-0.38839768671411895,"9-2-10-0":0.09568050906121307,"9-2-10-1":0.5445696136149365,"9-2-10-2":0.060551078494777553,"9-2-10-3":1.3450388472935022,"9-2-10-4":-1.3563237708995768,"9-3-10-0":1.4022506442378762,"9-3-10-1":-0.07044435113768768,"9-3-10-2":-1.5498186049025329,"9-3-10-3":0.4064082785530951,"9-3-10-4":0.049119965441506715,"9-4-10-0":-0.9900773211684789,"9-4-10-1":-0.5475682007255672,"9-4-10-2":0.7038595190023719,"9-4-10-3":-0.46339910267289836,"9-4-10-4":0.4075616626952992,"10-0-11-0":-1.2413147177644488,"10-0-11-1":-0.7306880015104703,"10-0-11-2":1.1495445947841123,"10-1-11-0":-1.3679804200313819,"10-1-11-1":-1.1220418740587328,"10-1-11-2":1.986395049139282,"10-2-11-0":0.18863297346158464,"10-2-11-1":1.9785796666771565,"10-2-11-2":0.4253345650447982,"10-3-11-0":1.1896368004978874,"10-3-11-1":-2.3028951594045357,"10-3-11-2":1.9012122364015496,"10-4-11-0":-0.5973286144592083,"10-4-11-1":-0.6358247364722366,"10-4-11-2":-0.9097163785266872,"i-0-11-0":-7.516318503028992,"i-0-11-1":-2.0364657397374715,"i-0-11-2":11.013300402394057,"i-0-Blank":-0.6598866439310707,"i-1-11-0":-11.888459038969971,"i-1-11-1":-0.5582526066994034,"i-1-11-2":10.307818753113205,"i-1-Blank":1.4439040752877663,"i-2-11-0":1.3485720158927834,"i-2-11-1":-4.829062648561002,"i-2-11-2":4.784086794954101,"i-2-Blank":1.1552354955485056,"i-3-11-0":1.9011293136481409,"i-3-11-1":-1.8832097119326379,"i-3-11-2":2.5047562111005823,"i-3-Blank":-0.862477683343311,"11-0-Blank-0":-0.026685713754808424,"11-1-Blank-0":0.2838295906513177,"11-2-Blank-0":-1.186214528402748,"i-0-0-0":1.0315336140569473,"i-0-0-1":1.322474804997384,"i-1-0-0":-0.828843006566791,"i-1-0-1":-2.6991364689270063,"i-2-0-0":-0.8814633370401233,"i-2-0-1":1.09728508550479,"i-3-0-0":1.1308283390738847,"i-3-0-1":0.5178901008453834,"0-0-11-0":0.10615753534433979,"0-0-11-1":-1.7263282873085135,"0-0-11-2":-1.159627641212794,"0-1-11-0":0.2537339147622197,"0-1-11-1":-0.04470126235661208,"0-1-11-2":-1.0000906135750947,"i-0-0-2":-2.6319574776028065,"i-0-0-3":-0.010203296590145742,"i-0-0-4":0.466848531583595,"i-1-0-2":19.310985652755658,"i-1-0-3":-6.8980871295644235,"i-1-0-4":1.0356138552072889,"i-2-0-2":11.594383502803856,"i-2-0-3":0.24469031006698008,"i-2-0-4":2.3543390134789544,"i-3-0-2":2.5276034511580145,"i-3-0-3":0.651732465230434,"i-3-0-4":-0.5837870832528242,"0-2-11-0":-0.5575160248580243,"0-2-11-1":-0.6067991442728186,"0-2-11-2":-2.4210341208965382,"0-3-11-0":0.3066687775519546,"0-3-11-1":-0.39490929062057034,"0-3-11-2":0.10211796246096437,"0-4-11-0":-0.3990780915836579,"0-4-11-1":-1.1454587661897386,"0-4-11-2":0.3349493345701613,"1-0-11-0":0.20331818027521054,"1-0-11-1":-0.08244968271102945,"1-0-11-2":1.1393079586683308,"1-1-11-0":0.6503834112241946,"1-1-11-1":0.5656135706526884,"1-1-11-2":0.7407515588106967,"1-2-11-0":-3.858304966961336,"1-2-11-1":-0.7456923472979566,"1-2-11-2":9.50952947706039,"1-3-11-0":0.7374644847942412,"1-3-11-1":-0.6167800288430443,"1-3-11-2":-1.3022003455572178,"1-4-11-0":0.6564615755206238,"1-4-11-1":0.850464034802465,"1-4-11-2":-0.08809676071196891},"biases":{"1-0":0.6550259760676921,"1-1":-0.28435062969003033,"1-2":0.11696955957892641,"1-3":-1.191109517699449,"1-4":-1.4937411192774528,"2-0":0.4672414015050039,"2-1":-0.11490662263182048,"2-2":-0.026603348451624872,"2-3":0.6763047374119804,"2-4":0.25793877593222586,"3-0":0.7833267635389584,"3-1":0.5316983597399301,"3-2":-0.03694626768246996,"3-3":0.13626158707428412,"3-4":-0.07847658657546981,"4-0":0.21001589310037658,"4-1":0.03843803771340623,"4-2":-0.6461911358779734,"4-3":0.040059782753790615,"4-4":0.5538106443612754,"5-0":0.5025749425250489,"5-1":0.2965746837456482,"5-2":0.3689705662581419,"5-3":0.3766346210087601,"5-4":0.5018075663290906,"6-0":-1.4823542202305486,"6-1":-0.00799435049729372,"6-2":-1.5003578647749243,"6-3":-0.6409046817379829,"6-4":-0.4239671212054306,"7-0":-0.6630693293359963,"7-1":-0.9229534961284895,"7-2":0.655777091765016,"7-3":0.28514795654303215,"7-4":0.01723548782150046,"8-0":-0.323865068704035,"8-1":-0.32671056288947603,"8-2":0.19783336400534995,"8-3":0.4571407699061731,"8-4":0.49693011350368976,"9-0":0.04104978388180547,"9-1":-0.30053673449410634,"9-2":0.757977138637835,"9-3":0.037840255698226626,"9-4":0.5351198560522051,"10-0":0.8589167088634668,"10-1":0.4168797365698717,"10-2":-0.5650208283598724,"10-3":0.1335387278505894,"10-4":0.29788824353791177,"11-0":-1.0075677972488586,"11-1":-0.1656450612976307,"11-2":0.0649559383199436,"i-0":4.276213376161596,"i-1":1.0363824574451328,"i-2":0.3096324437491501,"i-3":2.870345139826645,"11-3":-0.11406281529303616,"Blank-0":-0.8607442657651841,"Blank-1":0.5196942448404379,"Blank-2":-0.017299781167136964,"0-0":-20.18960583631911,"0-1":-22.90438928525246,"0-2":-0.7894355365425918,"0-3":3.5687445657419135,"11-4":-0.2651613895281194,"0-4":23.48154153274711}};

const model_weights_epoch_9 =

{"weights":{"0-0-1-0":0.5199471699565608,"0-0-1-1":0.958426774827465,"0-0-1-2":1.46132369236363,"0-0-1-3":1.369082907150079,"0-0-1-4":0.4600941281880947,"0-1-1-0":0.5805207944692358,"0-1-1-1":1.399726893129996,"0-1-1-2":0.8010457209189381,"0-1-1-3":1.075644904391089,"0-1-1-4":1.0251538199486394,"0-2-1-0":0.306826707632939,"0-2-1-1":0.22006919299420946,"0-2-1-2":-3.1726090670998386,"0-2-1-3":0.291742689265007,"0-2-1-4":-1.5135218512710102,"0-3-1-0":-0.14557704669287524,"0-3-1-1":-0.4029555690535392,"0-3-1-2":1.093402899971259,"0-3-1-3":-1.031749954609382,"0-3-1-4":-0.7351382104798267,"0-4-1-0":0.43534387408340774,"0-4-1-1":-1.8423074534789161,"0-4-1-2":0.035887174086279165,"0-4-1-3":-0.8268990610525846,"0-4-1-4":-0.6651077579992911,"1-0-2-0":-0.8607119319601357,"1-0-2-1":0.747806400170211,"1-0-2-2":-0.9336770656202156,"1-0-2-3":0.7678881030775899,"1-0-2-4":0.38169929865830265,"1-1-2-0":0.5488653174103038,"1-1-2-1":0.993142391779978,"1-1-2-2":0.7413874571571075,"1-1-2-3":0.8513502356218813,"1-1-2-4":-0.5812219385818946,"1-2-2-0":-0.0015102109105927838,"1-2-2-1":-1.8922797699721339,"1-2-2-2":0.7268342499250531,"1-2-2-3":0.41957185901380784,"1-2-2-4":-0.3098691259750026,"1-3-2-0":0.15008924529510556,"1-3-2-1":1.295760528405287,"1-3-2-2":-0.022954533581600874,"1-3-2-3":-0.5706749856738287,"1-3-2-4":0.5984604186349954,"1-4-2-0":0.35930154351359656,"1-4-2-1":-0.8320948285759989,"1-4-2-2":-0.15295210140687115,"1-4-2-3":1.002944122621635,"1-4-2-4":-1.0021331554225061,"2-0-3-0":0.16635990015966304,"2-0-3-1":-0.5463193334938168,"2-0-3-2":0.07382672087064177,"2-0-3-3":0.6373350407426356,"2-0-3-4":0.18664362862140693,"2-1-3-0":-0.8585540997463043,"2-1-3-1":-0.6760681481808759,"2-1-3-2":-0.5630796832068796,"2-1-3-3":1.1455522990574019,"2-1-3-4":-1.9556003337030434,"2-2-3-0":-0.7003878129290948,"2-2-3-1":0.10673970513948937,"2-2-3-2":-0.7191899400643657,"2-2-3-3":-1.4177725794668075,"2-2-3-4":-0.5395105986732309,"2-3-3-0":0.23466106481871551,"2-3-3-1":1.0104494740036885,"2-3-3-2":-0.9873909991561265,"2-3-3-3":-0.02605217212291451,"2-3-3-4":1.1415825900147245,"2-4-3-0":0.005752294126523066,"2-4-3-1":0.044982017801250475,"2-4-3-2":-1.3876194023159516,"2-4-3-3":0.908490738909093,"2-4-3-4":-0.49432989634600544,"3-0-4-0":0.8557144938360486,"3-0-4-1":-1.7239630359876859,"3-0-4-2":-0.3570051858410459,"3-0-4-3":0.43716949269252536,"3-0-4-4":-1.4980203238325958,"3-1-4-0":-1.0042368441310743,"3-1-4-1":-1.025639303442356,"3-1-4-2":-0.8588646500742322,"3-1-4-3":-0.17158815767777652,"3-1-4-4":0.5545989120912376,"3-2-4-0":0.7039406739578555,"3-2-4-1":-0.14125994162619815,"3-2-4-2":1.586452772635529,"3-2-4-3":0.450163232009433,"3-2-4-4":-0.19835931187632913,"3-3-4-0":-0.47994761549759724,"3-3-4-1":0.04513716590605166,"3-3-4-2":-1.819166492854853,"3-3-4-3":-1.0728366538044907,"3-3-4-4":0.9982284004818269,"3-4-4-0":-1.8924137390025257,"3-4-4-1":0.4704533679476319,"3-4-4-2":-1.3205505660768184,"3-4-4-3":-1.2479650381953311,"3-4-4-4":-1.70880981141143,"4-0-5-0":0.6092225617876551,"4-0-5-1":-0.6096009718628014,"4-0-5-2":0.10200008366473926,"4-0-5-3":-0.7745733199463063,"4-0-5-4":-0.4237049490220147,"4-1-5-0":1.9706083822664202,"4-1-5-1":1.2882141732172285,"4-1-5-2":0.9983017851133279,"4-1-5-3":0.6946489731568073,"4-1-5-4":-1.1214945810129706,"4-2-5-0":-0.29981954708936354,"4-2-5-1":0.1303317747799971,"4-2-5-2":0.5168405903218384,"4-2-5-3":-1.1040332831954254,"4-2-5-4":-0.2587985157238582,"4-3-5-0":0.3785546271774246,"4-3-5-1":0.7553945470202577,"4-3-5-2":1.617788468767627,"4-3-5-3":0.2860633286676261,"4-3-5-4":-1.5677262506198373,"4-4-5-0":-0.9715273733044434,"4-4-5-1":-0.42548750924052064,"4-4-5-2":0.15298872666581442,"4-4-5-3":-0.8207588043893133,"4-4-5-4":1.4893931758608656,"5-0-6-0":0.11411253460546085,"5-0-6-1":0.9568498213545641,"5-0-6-2":0.6968048235712437,"5-0-6-3":0.44279695231955635,"5-0-6-4":0.3180053686184427,"5-1-6-0":1.046305834244272,"5-1-6-1":-1.3362398179928567,"5-1-6-2":-0.2393725931805707,"5-1-6-3":-0.17745181672550425,"5-1-6-4":0.29587903106359825,"5-2-6-0":-0.8593453035225578,"5-2-6-1":-0.9710372546102017,"5-2-6-2":-0.488298501302758,"5-2-6-3":0.4873359570818288,"5-2-6-4":-1.6853502900212358,"5-3-6-0":-0.8949567126751741,"5-3-6-1":-1.3482198023943772,"5-3-6-2":-0.10779192159004804,"5-3-6-3":-1.330739574262022,"5-3-6-4":0.4835707442275413,"5-4-6-0":-1.4286792761386045,"5-4-6-1":-1.40375584946928,"5-4-6-2":-0.28863503052894285,"5-4-6-3":1.1726486504000404,"5-4-6-4":0.2594316930854833,"6-0-7-0":0.4510217225034439,"6-0-7-1":-0.23903274622378573,"6-0-7-2":2.3217163621753936,"6-0-7-3":-0.25664024152220266,"6-0-7-4":1.7485846005792989,"6-1-7-0":3.77985636104074,"6-1-7-1":0.11461928018449481,"6-1-7-2":0.05628465952512947,"6-1-7-3":0.6726627004605245,"6-1-7-4":-0.6912989840487221,"6-2-7-0":0.5855206220284085,"6-2-7-1":0.7644446132375683,"6-2-7-2":-0.5338438367623991,"6-2-7-3":-0.7170440447068342,"6-2-7-4":0.859434422058686,"6-3-7-0":-0.03690391698570094,"6-3-7-1":0.4006852323699344,"6-3-7-2":-0.7496924484676136,"6-3-7-3":-1.5795448562391896,"6-3-7-4":0.4166847770108758,"6-4-7-0":-0.14353200634829452,"6-4-7-1":1.0851509696109405,"6-4-7-2":0.7959817802433248,"6-4-7-3":-2.8429123783934394,"6-4-7-4":-0.13370557292413127,"7-0-8-0":-1.086230913603088,"7-0-8-1":0.5009871924529073,"7-0-8-2":0.6982942913803076,"7-0-8-3":0.6609631513668216,"7-0-8-4":-1.5195557256609395,"7-1-8-0":1.1441232141537987,"7-1-8-1":1.0037127626350226,"7-1-8-2":-0.8978708366056314,"7-1-8-3":1.195702343196687,"7-1-8-4":0.3779660650669757,"7-2-8-0":-1.2726132017162155,"7-2-8-1":0.1430909774010674,"7-2-8-2":-1.0498753042770428,"7-2-8-3":0.5553506953848942,"7-2-8-4":-1.6503195242766857,"7-3-8-0":-1.717168876525408,"7-3-8-1":0.668896208001135,"7-3-8-2":-0.24925755980685044,"7-3-8-3":-1.5476642579158875,"7-3-8-4":1.1551429113464793,"7-4-8-0":-0.5008208657745901,"7-4-8-1":-1.9582672688528913,"7-4-8-2":0.7123258621361533,"7-4-8-3":-2.031476409847251,"7-4-8-4":-0.11648310169297157,"8-0-9-0":2.181600568514766,"8-0-9-1":-1.07986963540358,"8-0-9-2":0.7330163094431585,"8-0-9-3":0.014686911359231745,"8-0-9-4":-1.4390465917186281,"8-1-9-0":-0.8580244415440906,"8-1-9-1":-0.5713824583075262,"8-1-9-2":-0.8283240684804501,"8-1-9-3":1.0342579868716895,"8-1-9-4":-1.4763280396746725,"8-2-9-0":0.4173059520925791,"8-2-9-1":-1.0904126177847655,"8-2-9-2":-0.19326601521313697,"8-2-9-3":0.9104061781971186,"8-2-9-4":-1.039036165062447,"8-3-9-0":-1.3139137865151806,"8-3-9-1":-0.2010016913513739,"8-3-9-2":1.2127652855571327,"8-3-9-3":0.24395826860659578,"8-3-9-4":-0.4161833263159243,"8-4-9-0":1.767016552624327,"8-4-9-1":1.8277718426003724,"8-4-9-2":0.08064223403651895,"8-4-9-3":-0.9785091813417408,"8-4-9-4":0.8983706648284993,"9-0-10-0":0.3989581105709176,"9-0-10-1":0.017867100054212406,"9-0-10-2":-0.6364379053453032,"9-0-10-3":1.4614985384256474,"9-0-10-4":-0.12838860090577872,"9-1-10-0":-0.15655866141043195,"9-1-10-1":1.281253437911909,"9-1-10-2":-0.21338118061388925,"9-1-10-3":-0.6885196364057121,"9-1-10-4":-0.38839768671411895,"9-2-10-0":0.09568050906121307,"9-2-10-1":0.5445696136149365,"9-2-10-2":0.060551078494777553,"9-2-10-3":1.3450388472935022,"9-2-10-4":-1.3563237708995768,"9-3-10-0":1.4022506442378762,"9-3-10-1":-0.07044435113768768,"9-3-10-2":-1.5498186049025329,"9-3-10-3":0.4064082785530951,"9-3-10-4":0.049119965441506715,"9-4-10-0":-0.9900773211684789,"9-4-10-1":-0.5475682007255672,"9-4-10-2":0.7038595190023719,"9-4-10-3":-0.46339910267289836,"9-4-10-4":0.4075616626952992,"10-0-11-0":-1.2413147177644488,"10-0-11-1":-0.7306880015104703,"10-0-11-2":1.1495445947841123,"10-1-11-0":-1.3679804200313819,"10-1-11-1":-1.1220418740587328,"10-1-11-2":1.986395049139282,"10-2-11-0":0.18863297346158464,"10-2-11-1":1.9785796666771565,"10-2-11-2":0.4253345650447982,"10-3-11-0":1.1896368004978874,"10-3-11-1":-2.3028951594045357,"10-3-11-2":1.9012122364015496,"10-4-11-0":-0.5973286144592083,"10-4-11-1":-0.6358247364722366,"10-4-11-2":-0.9097163785266872,"i-0-11-0":-8.67149480524055,"i-0-11-1":-1.6737710281999472,"i-0-11-2":10.8646757251112,"i-0-Blank":-0.34001501681707985,"i-1-11-0":-13.59119344017994,"i-1-11-1":0.06791999140982401,"i-1-11-2":10.134521061867158,"i-1-Blank":0.5540721157214786,"i-2-11-0":1.1423392391401932,"i-2-11-1":-4.929680824590653,"i-2-11-2":4.549869564518884,"i-2-Blank":1.758176464404419,"i-3-11-0":1.9105902014115743,"i-3-11-1":-1.928728685073056,"i-3-11-2":2.407388443109607,"i-3-Blank":-1.760606900591301,"11-0-Blank-0":-0.026685713754808424,"11-1-Blank-0":0.2838295906513177,"11-2-Blank-0":-1.186214528402748,"i-0-0-0":1.0297702560814355,"i-0-0-1":1.3240419141906932,"i-0-0-2":-2.7466159051905503,"i-0-0-3":0.05227252408157982,"i-1-0-0":-0.8322024328840096,"i-1-0-1":-2.6925490567147783,"i-1-0-2":18.236029837718764,"i-1-0-3":-6.374174330060677,"i-2-0-0":-0.8846622908825152,"i-2-0-1":1.0972175036557656,"i-2-0-2":11.881779015369382,"i-2-0-3":0.14664387040388108,"i-3-0-0":1.1296515438288388,"i-3-0-1":0.517138013586573,"i-3-0-2":2.73748187026389,"i-3-0-3":0.5738847211358041,"0-0-11-0":0.10615753534433979,"0-0-11-1":-1.7263282873085135,"0-0-11-2":-1.159627641212794,"0-1-11-0":0.2537339147622197,"0-1-11-1":-0.04470126235661208,"0-1-11-2":-1.0000906135750947,"0-2-11-0":-0.5575160248580243,"0-2-11-1":-0.6067991442728186,"0-2-11-2":-2.4210341208965382,"0-3-11-0":0.3066687775519546,"0-3-11-1":-0.39490929062057034,"0-3-11-2":0.10211796246096437,"i-0-0-4":0.4676023491099398,"i-1-0-4":1.0408744464379232,"i-2-0-4":2.3545013415980574,"i-3-0-4":-0.5840085110909812,"0-4-11-0":-0.3990780915836579,"0-4-11-1":-1.1454587661897386,"0-4-11-2":0.3349493345701613,"1-0-11-0":0.20273881609951017,"1-0-11-1":-0.08132718658942394,"1-0-11-2":1.1367115601696414,"1-1-11-0":0.6532416173581113,"1-1-11-1":0.5848505839129132,"1-1-11-2":0.7019288550657805,"1-2-11-0":-3.891119534438594,"1-2-11-1":-0.44924879355879915,"1-2-11-2":8.759275973471556,"1-3-11-0":0.7146598692802821,"1-3-11-1":-0.5115978462833346,"1-3-11-2":-1.4698552690927236,"1-4-11-0":0.6558822113449244,"1-4-11-1":0.8515865309240708,"1-4-11-2":-0.09069315921065597},"biases":{"1-0":0.5923987873257495,"1-1":-0.3717645573414307,"1-2":0.29283671960623464,"1-3":-1.2564504257820672,"1-4":-1.5487763083036683,"2-0":0.4672414015050039,"2-1":-0.11490662263182048,"2-2":-0.026603348451624872,"2-3":0.6763047374119804,"2-4":0.25793877593222586,"3-0":0.7833267635389584,"3-1":0.5316983597399301,"3-2":-0.03694626768246996,"3-3":0.13626158707428412,"3-4":-0.07847658657546981,"4-0":0.21001589310037658,"4-1":0.03843803771340623,"4-2":-0.6461911358779734,"4-3":0.040059782753790615,"4-4":0.5538106443612754,"5-0":0.5025749425250489,"5-1":0.2965746837456482,"5-2":0.3689705662581419,"5-3":0.3766346210087601,"5-4":0.5018075663290906,"6-0":-1.4823542202305486,"6-1":-0.00799435049729372,"6-2":-1.5003578647749243,"6-3":-0.6409046817379829,"6-4":-0.4239671212054306,"7-0":-0.6630693293359963,"7-1":-0.9229534961284895,"7-2":0.655777091765016,"7-3":0.28514795654303215,"7-4":0.01723548782150046,"8-0":-0.323865068704035,"8-1":-0.32671056288947603,"8-2":0.19783336400534995,"8-3":0.4571407699061731,"8-4":0.49693011350368976,"9-0":0.04104978388180547,"9-1":-0.30053673449410634,"9-2":0.757977138637835,"9-3":0.037840255698226626,"9-4":0.5351198560522051,"10-0":0.8589167088634668,"10-1":0.4168797365698717,"10-2":-0.5650208283598724,"10-3":0.1335387278505894,"10-4":0.29788824353791177,"11-0":-1.0075677972488586,"11-1":-0.1656450612976307,"11-2":0.0649559383199436,"i-0":5.870367741596615,"i-1":1.5843940271710977,"i-2":-2.3359561597669454,"i-3":1.5927187955751867,"11-3":-0.11406281529303616,"Blank-0":-0.8607442657651841,"Blank-1":0.5196942448404379,"Blank-2":-0.017299781167136964,"0-0":-20.523073941824034,"0-1":-22.892975008577814,"0-2":-1.0883630638785666,"0-3":3.6902568688438118,"11-4":-0.2651613895281194,"0-4":23.544288329498}};


export const models = {
    3: model_weights_epoch_3,
    6: model_weights_epoch_6,
    9: model_weights_epoch_9 
  }